<?xml version="1.0"?>
<opencv_storage>
<stage6>
  <maxWeakCount>5</maxWeakCount>
  <stageThreshold>-1.3522605895996094e+00</stageThreshold>
  <weakClassifiers>
    <_>
      <internalNodes>
        0 -1 9111 -67109377 -11560695 -787218465 -540027569 -540280325
        -83760381 -1947235329 -11534561</internalNodes>
      <leafValues>
        -8.2988357543945312e-01 5.9531414508819580e-01</leafValues></_>
    <_>
      <internalNodes>
        0 -1 4530 -536875009 -2936991 1536494462 -525321 2078928895
        -106181985 2075083765 -1311753</internalNodes>
      <leafValues>
        -7.6140069961547852e-01 5.8694070577621460e-01</leafValues></_>
    <_>
      <internalNodes>
        0 -1 48838 -217590337 -673753090 462668274 -2621838 -1018980385
        -10496698 -7866625 -4218182</internalNodes>
      <leafValues>
        -7.9971152544021606e-01 5.8420759439468384e-01</leafValues></_>
    <_>
      <internalNodes>
        0 -1 42892 -8390 -537005893 -477662244 -34766340 -147983490
        -82017356 -145650708 -134873089</internalNodes>
      <leafValues>
        -8.2119470834732056e-01 4.9414804577827454e-01</leafValues></_>
    <_>
      <internalNodes>
        0 -1 50682 -16779538 -1361059153 -1878916978 -354491105
        -69481697 -473178301 -224511130 -193482889</internalNodes>
      <leafValues>
        -7.6594227552413940e-01 5.4458707571029663e-01</leafValues></_></weakClassifiers></stage6>
</opencv_storage>
