<?xml version="1.0"?>
<opencv_storage>
<stage2>
  <maxWeakCount>4</maxWeakCount>
  <stageThreshold>-1.8940030336380005e+00</stageThreshold>
  <weakClassifiers>
    <_>
      <internalNodes>
        0 -1 46499 -705170137 -203426913 1124282843 -48774701 -741610501
        -511672061 -171195765 -1049601</internalNodes>
      <leafValues>
        -8.5025382041931152e-01 7.6564276218414307e-01</leafValues></_>
    <_>
      <internalNodes>
        0 -1 46973 -12591105 -752879154 1608507391 -3155978 -640943105
        -1086350002 -740295953 -26450</internalNodes>
      <leafValues>
        -7.9888176918029785e-01 7.0200258493423462e-01</leafValues></_>
    <_>
      <internalNodes>
        0 -1 18521 -14689281 -537217060 -208172065 -657924 -96544261
        -70085637 -273752065 -960655</internalNodes>
      <leafValues>
        -8.4422951936721802e-01 5.8480644226074219e-01</leafValues></_>
    <_>
      <internalNodes>
        0 -1 47091 -2627922 -153362465 -1875509180 -152645410 1930154563
        1879214339 -7602430 -428343433</internalNodes>
      <leafValues>
        -7.8444564342498779e-01 5.9936207532882690e-01</leafValues></_></weakClassifiers></stage2>
</opencv_storage>
