<?xml version="1.0"?>
<opencv_storage>
<stage10>
  <maxWeakCount>5</maxWeakCount>
  <stageThreshold>-1.1873630285263062e+00</stageThreshold>
  <weakClassifiers>
    <_>
      <internalNodes>
        0 -1 41712 -352325849 -254819633 -754720753 -498355445
        -361763893 -859586557 -489822801 -523243729</internalNodes>
      <leafValues>
        -8.4693878889083862e-01 4.4271311163902283e-01</leafValues></_>
    <_>
      <internalNodes>
        0 -1 33996 1024581585 -1785341007 -1145833987 -2639623 -58131203
        -35688239 -75188004 -50803220</internalNodes>
      <leafValues>
        -7.1308696269989014e-01 5.9733772277832031e-01</leafValues></_>
    <_>
      <internalNodes>
        0 -1 58147 -551819425 -200048209 1930384671 -13110805 -9454593
        -1154485318 -1151758264 -581965313</internalNodes>
      <leafValues>
        -7.9075402021408081e-01 4.9687880277633667e-01</leafValues></_>
    <_>
      <internalNodes>
        0 -1 9722 -337713425 -581185057 -534972673 -193011729 2054161999
        -15429 -138609409 -34078753</internalNodes>
      <leafValues>
        -7.0080810785293579e-01 5.8008897304534912e-01</leafValues></_>
    <_>
      <internalNodes>
        0 -1 14402 -1051973 -815798074 1896772592 -3146825 2003766947
        -1699759411 1238202359 -2058</internalNodes>
      <leafValues>
        -6.6421353816986084e-01 5.8332765102386475e-01</leafValues></_></weakClassifiers></stage10>
</opencv_storage>
