<?xml version="1.0"?>
<opencv_storage>
<cascade>
  <stageType>BOOST</stageType>
  <featureType>LBP</featureType>
  <height>40</height>
  <width>40</width>
  <stageParams>
    <boostType>GAB</boostType>
    <minHitRate>9.9500000476837158e-01</minHitRate>
    <maxFalseAlarm>5.0000000000000000e-01</maxFalseAlarm>
    <weightTrimRate>9.4999999999999996e-01</weightTrimRate>
    <maxDepth>1</maxDepth>
    <maxWeakCount>100</maxWeakCount></stageParams>
  <featureParams>
    <maxCatCount>256</maxCatCount>
    <featSize>1</featSize></featureParams>
  <stageNum>15</stageNum>
  <stages>
    <!-- stage 0 -->
    <_>
      <maxWeakCount>5</maxWeakCount>
      <stageThreshold>-1.1215549707412720e+00</stageThreshold>
      <weakClassifiers>
        <_>
          <internalNodes>
            0 -1 57 -185534240 -254739758 336518917 1599209427
            -722407184 -789536528 471850671 1939341303</internalNodes>
          <leafValues>
            -4.9385559558868408e-01 8.2664835453033447e-01</leafValues></_>
        <_>
          <internalNodes>
            0 -1 89 -52376708 -9121942 -1095782481 -1088975049
            -579740481 -1779306244 -1735746386 -1195922497</internalNodes>
          <leafValues>
            -4.9347177147865295e-01 6.6060185432434082e-01</leafValues></_>
        <_>
          <internalNodes>
            0 -1 189 -8429713 -1937834001 -84746750 -324098225
            -143167677 1465909087 -159908095 -251660331</internalNodes>
          <leafValues>
            -5.4136854410171509e-01 6.0007733106613159e-01</leafValues></_>
        <_>
          <internalNodes>
            0 -1 15 -151835393 -11040841 -319124866 -1271919713
            -680591297 2120181615 -674821973 -94416897</internalNodes>
          <leafValues>
            -4.5492839813232422e-01 5.8909708261489868e-01</leafValues></_>
        <_>
          <internalNodes>
            0 -1 176 1610301263 1990195039 707651318 819984371 -6336702
            2080868175 -268968266 -156565571</internalNodes>
          <leafValues>
            -4.5843461155891418e-01 5.5346822738647461e-01</leafValues></_></weakClassifiers></_>
    <!-- stage 1 -->
    <_>
      <maxWeakCount>7</maxWeakCount>
      <stageThreshold>-1.2082681655883789e+00</stageThreshold>
      <weakClassifiers>
        <_>
          <internalNodes>
            0 -1 24 -983350 -3388414 -387383564 -808988958 1483788978
            -9419264 1348522235 1291804671</internalNodes>
          <leafValues>
            -3.8719999790191650e-01 7.9431772232055664e-01</leafValues></_>
        <_>
          <internalNodes>
            0 -1 75 -70258216 -2107683 432749053 -201327218 -73737320
            -619126312 2009969663 38285898</internalNodes>
          <leafValues>
            -5.8137857913970947e-01 5.6279236078262329e-01</leafValues></_>
        <_>
          <internalNodes>
            0 -1 181 -35653822 1743778783 -464797180 -1026565489
            -206062784 1142407715 -109054108 -251666433</internalNodes>
          <leafValues>
            -5.2637457847595215e-01 5.3076499700546265e-01</leafValues></_>
        <_>
          <internalNodes>
            0 -1 0 -813259794 -2886705 322765767 1600075743 -139527186
            -138395384 1530658303 2008513503</internalNodes>
          <leafValues>
            -5.3057980537414551e-01 4.6483701467514038e-01</leafValues></_>
        <_>
          <internalNodes>
            0 -1 91 -176914564 2136010878 -123554677 -777519754
            -614047238 -773091157 -660023094 -50987042</internalNodes>
          <leafValues>
            -5.1864147186279297e-01 4.0685340762138367e-01</leafValues></_>
        <_>
          <internalNodes>
            0 -1 150 -471860752 -283511127 -674934592 -1073741825
            -418862463 537414026 -892665728 -930091269</internalNodes>
          <leafValues>
            -4.8579427599906921e-01 4.3146726489067078e-01</leafValues></_>
        <_>
          <internalNodes>
            0 -1 49 -427831601 1750301665 1807411812 37884770 -713588926
            1750165318 -738360314 -748687649</internalNodes>
          <leafValues>
            -3.5523396730422974e-01 5.6937617063522339e-01</leafValues></_></weakClassifiers></_>
    <!-- stage 2 -->
    <_>
      <maxWeakCount>9</maxWeakCount>
      <stageThreshold>-8.7914913892745972e-01</stageThreshold>
      <weakClassifiers>
        <_>
          <internalNodes>
            0 -1 84 -39977736 -264441796 -48892655 1964347413 -596247362
            -2004025604 -1090128730 -1287670123</internalNodes>
          <leafValues>
            -2.2523701190948486e-01 8.0814343690872192e-01</leafValues></_>
        <_>
          <internalNodes>
            0 -1 98 -287201 -14336085 -5261161 -1079394513 -218197889
            -93257857 -771884801 -2136985532</internalNodes>
          <leafValues>
            -4.3624186515808105e-01 6.1570644378662109e-01</leafValues></_>
        <_>
          <internalNodes>
            0 -1 2 -942691589 -1882527006 598679955 -548974896
            -854655509 -351621376 1198997943 -277354585</internalNodes>
          <leafValues>
            -4.2027354240417480e-01 5.9399473667144775e-01</leafValues></_>
        <_>
          <internalNodes>
            0 -1 170 -68161557 -1349793880 1408864688 -537138261
            1139265451 219152293 -775462848 -993001529</internalNodes>
          <leafValues>
            -4.0517607331275940e-01 5.4033035039901733e-01</leafValues></_>
        <_>
          <internalNodes>
            0 -1 71 1937060632 -1142221940 866464029 -7341109 997178842
            -1205138548 1918860543 956301311</internalNodes>
          <leafValues>
            -5.2603948116302490e-01 3.8415554165840149e-01</leafValues></_>
        <_>
          <internalNodes>
            0 -1 166 -201851133 -142884237 67702784 7717251 -138170806
            1969331011 -395319064 -184549385</internalNodes>
          <leafValues>
            -4.2559885978698730e-01 4.5916566252708435e-01</leafValues></_>
        <_>
          <internalNodes>
            0 -1 141 -4212813 -1414813790 -1002749583 -106824727
            -1672478835 -1412497443 -573968912 -812646453</internalNodes>
          <leafValues>
            -3.1650289893150330e-01 5.7971876859664917e-01</leafValues></_>
        <_>
          <internalNodes>
            0 -1 101 817637757 1039430443 -924576770 -135816293
            -1848772136 -1309821612 -789640722 -185358458</internalNodes>
          <leafValues>
            -4.3420937657356262e-01 4.2394533753395081e-01</leafValues></_>
        <_>
          <internalNodes>
            0 -1 51 -67896710 992914174 -495795654 -130876778 -44350654
            -601137894 -221780262 -129764789</internalNodes>
          <leafValues>
            -3.9771243929862976e-01 4.3770697712898254e-01</leafValues></_></weakClassifiers></_>
    <!-- stage 3 -->
    <_>
      <maxWeakCount>9</maxWeakCount>
      <stageThreshold>-1.1067379713058472e+00</stageThreshold>
      <weakClassifiers>
        <_>
          <internalNodes>
            0 -1 81 -178202656 2146524999 -8589321 1607933783 -148836888
            -402657289 -274493960 1072106339</internalNodes>
          <leafValues>
            -4.1295546293258667e-01 7.5067210197448730e-01</leafValues></_>
        <_>
          <internalNodes>
            0 -1 167 -33563168 -712116911 -821301880 229231821
            -134744592 1442665969 -552628920 1305466319</internalNodes>
          <leafValues>
            -4.9248573184013367e-01 5.1192665100097656e-01</leafValues></_>
        <_>
          <internalNodes>
            0 -1 36 -25494790 2088203254 -649409830 -19165534 -657196805
            1223910246 -375534609 1599292931</internalNodes>
          <leafValues>
            -5.4856598377227783e-01 4.0517985820770264e-01</leafValues></_>
        <_>
          <internalNodes>
            0 -1 32 -290525225 -16061150 388963291 -1113310 -888385537
            -75302938 1607816183 -1083565</internalNodes>
          <leafValues>
            -3.8524156808853149e-01 5.0776296854019165e-01</leafValues></_>
        <_>
          <internalNodes>
            0 -1 185 -805313809 195686049 -160992096 -319892497
            -168319647 277216175 -679480127 -185600047</internalNodes>
          <leafValues>
            -3.8307768106460571e-01 4.7391700744628906e-01</leafValues></_>
        <_>
          <internalNodes>
            0 -1 92 1007973308 1064890815 -659625490 1059571190
            -544291085 -632635242 -600394516 -57188618</internalNodes>
          <leafValues>
            -6.1914581060409546e-01 2.8052625060081482e-01</leafValues></_>
        <_>
          <internalNodes>
            0 -1 4 -825300282 -1894897950 118425301 -142678614
            1273253550 1057063428 290526199 2139038295</internalNodes>
          <leafValues>
            -5.7916259765625000e-01 2.9561582207679749e-01</leafValues></_>
        <_>
          <internalNodes>
            0 -1 135 -817924935 522810544 -1942076172 2139059669
            1610609595 254951396 1589609904 -1346638342</internalNodes>
          <leafValues>
            -3.8272422552108765e-01 4.4736504554748535e-01</leafValues></_>
        <_>
          <internalNodes>
            0 -1 65 -201388289 1568394875 644536447 957513399 1582238974
            -72396961 2056963791 -12587489</internalNodes>
          <leafValues>
            -2.9553076624870300e-01 5.5998855829238892e-01</leafValues></_></weakClassifiers></_>
    <!-- stage 4 -->
    <_>
      <maxWeakCount>11</maxWeakCount>
      <stageThreshold>-1.1357116699218750e+00</stageThreshold>
      <weakClassifiers>
        <_>
          <internalNodes>
            0 -1 114 -878584 1058878724 803159999 960347933 -1367108600
            -1122691628 12523663 271556031</internalNodes>
          <leafValues>
            -2.6606294512748718e-01 7.5528556108474731e-01</leafValues></_>
        <_>
          <internalNodes>
            0 -1 100 -727171 -9126129 656912303 -1082680057 -52561665
            -168430083 -721440785 -42467329</internalNodes>
          <leafValues>
            -3.2724207639694214e-01 6.1137801408767700e-01</leafValues></_>
        <_>
          <internalNodes>
            0 -1 54 -202378550 1362985341 1100850158 1407157210
            1900150666 390584557 1531695566 1531698763</internalNodes>
          <leafValues>
            -5.4248601198196411e-01 4.1363540291786194e-01</leafValues></_>
        <_>
          <internalNodes>
            0 -1 173 -184553977 -210425852 1920450295 2004028167
            -255990036 -648 -1057359157 -262152482</internalNodes>
          <leafValues>
            -3.2378137111663818e-01 5.7252651453018188e-01</leafValues></_>
        <_>
          <internalNodes>
            0 -1 85 805314044 1036320535 1579055865 2010489552
            -204180488 1061894912 -122034436 836060284</internalNodes>
          <leafValues>
            -5.9642714262008667e-01 3.0531671643257141e-01</leafValues></_>
        <_>
          <internalNodes>
            0 -1 17 -117461249 -1073865089 -2137503553 -1223365617
            -204863409 -2156939 -359758593 -82313633</internalNodes>
          <leafValues>
            -3.5722872614860535e-01 5.1490503549575806e-01</leafValues></_>
        <_>
          <internalNodes>
            0 -1 22 -408488194 -564600098 1244891975 1299121062
            952129714 -270333705 -1422622985 2114275317</internalNodes>
          <leafValues>
            -5.6415039300918579e-01 2.7085772156715393e-01</leafValues></_>
        <_>
          <internalNodes>
            0 -1 138 -554706145 1432256373 -1560369510 441659995
            -984036344 -1622388980 -1125126440 -19136669</internalNodes>
          <leafValues>
            -3.5165122151374817e-01 4.3266227841377258e-01</leafValues></_>
        <_>
          <internalNodes>
            0 -1 47 -639435918 -2213570 -671039664 -268584864 1243238098
            -34644807 -457330946 1271480515</internalNodes>
          <leafValues>
            -4.6435987949371338e-01 3.0779856443405151e-01</leafValues></_>
        <_>
          <internalNodes>
            0 -1 131 -1751639892 1030459359 -1803157810 -43009254
            64875202 842703120 1899574014 -326190594</internalNodes>
          <leafValues>
            -4.5527580380439758e-01 3.3226507902145386e-01</leafValues></_>
        <_>
          <internalNodes>
            0 -1 156 2013264290 -1592888704 636007792 -239660234
            -412309765 -1903176018 -1052389135 -846464946</internalNodes>
          <leafValues>
            -3.6661046743392944e-01 4.0097278356552124e-01</leafValues></_></weakClassifiers></_>
    <!-- stage 5 -->
    <_>
      <maxWeakCount>11</maxWeakCount>
      <stageThreshold>-8.8135260343551636e-01</stageThreshold>
      <weakClassifiers>
        <_>
          <internalNodes>
            0 -1 31 -1864700250 -168763398 96740708 938964975
            -1245343754 569646828 595983871 1431828219</internalNodes>
          <leafValues>
            -6.6537469625473022e-02 7.7006471157073975e-01</leafValues></_>
        <_>
          <internalNodes>
            0 -1 104 2138372733 -4390993 -13851602 -38944849 -1032076673
            -1032716297 -738397249 -526059979</internalNodes>
          <leafValues>
            -4.0926831960678101e-01 5.2663373947143555e-01</leafValues></_>
        <_>
          <internalNodes>
            0 -1 123 -38273613 -1968458847 -319424047 -1656898625
            -1107296775 -1438782469 -843474819 -1919942657</internalNodes>
          <leafValues>
            -3.5668885707855225e-01 5.6251913309097290e-01</leafValues></_>
        <_>
          <internalNodes>
            0 -1 34 -286265617 -1494554994 139506 -69011742 16228607
            13406139 1351701763 -1057621833</internalNodes>
          <leafValues>
            -4.2108207941055298e-01 4.3552145361900330e-01</leafValues></_>
        <_>
          <internalNodes>
            0 -1 83 859846613 -543899689 466441724 1977089525 1049109175
            -1171637992 2039462590 1003451644</internalNodes>
          <leafValues>
            -5.1904332637786865e-01 3.2865107059478760e-01</leafValues></_>
        <_>
          <internalNodes>
            0 -1 157 -168273827 -136371875 118677213 -1083350242
            -333931781 -181903081 -896996385 -1970602021</internalNodes>
          <leafValues>
            -3.9577013254165649e-01 4.3078213930130005e-01</leafValues></_>
        <_>
          <internalNodes>
            0 -1 130 -6291540 -1736860259 -711214195 532671317
            -258490424 149600424 1223522584 973011662</internalNodes>
          <leafValues>
            -4.9303498864173889e-01 3.2451683282852173e-01</leafValues></_>
        <_>
          <internalNodes>
            0 -1 20 -291321869 -676044046 804210683 1874789888
            -872391745 -277409803 266721247 -270047917</internalNodes>
          <leafValues>
            -3.1621167063713074e-01 4.9805203080177307e-01</leafValues></_>
        <_>
          <internalNodes>
            0 -1 12 -553981297 358588687 -500046170 -1294807986
            -516948218 1192087840 -236390229 -253237433</internalNodes>
          <leafValues>
            -4.0542241930961609e-01 3.5894268751144409e-01</leafValues></_>
        <_>
          <internalNodes>
            0 -1 3 -729354916 -1144762969 1509327 668827654 -139957004
            195764912 1604012543 1408989115</internalNodes>
          <leafValues>
            -4.7896614670753479e-01 2.8555557131767273e-01</leafValues></_>
        <_>
          <internalNodes>
            0 -1 184 -469789337 -168378573 2016142078 587194219
            1713612288 -414868110 -252783893 -150999041</internalNodes>
          <leafValues>
            -2.8554069995880127e-01 5.0977599620819092e-01</leafValues></_></weakClassifiers></_>
    <!-- stage 6 -->
    <_>
      <maxWeakCount>12</maxWeakCount>
      <stageThreshold>-8.1540572643280029e-01</stageThreshold>
      <weakClassifiers>
        <_>
          <internalNodes>
            0 -1 127 -84095812 -34296578 -16913 -274199378 1843133371 -1
            -23388373 2015239983</internalNodes>
          <leafValues>
            -3.1108930706977844e-01 7.4021762609481812e-01</leafValues></_>
        <_>
          <internalNodes>
            0 -1 136 -8389025 1532800799 318710811 847116187 1592782410
            -28352899 -83959042 -83887397</internalNodes>
          <leafValues>
            -2.2484633326530457e-01 6.6012573242187500e-01</leafValues></_>
        <_>
          <internalNodes>
            0 -1 142 -42999373 -1894862069 -773491247 -39865477
            -1058146823 -1924464725 -850315815 -812646485</internalNodes>
          <leafValues>
            -2.9541510343551636e-01 5.6686699390411377e-01</leafValues></_>
        <_>
          <internalNodes>
            0 -1 9 -629677317 -1346056474 441450648 -624902590
            -842038497 239561086 -158350641 -549192893</internalNodes>
          <leafValues>
            -4.0975409746170044e-01 4.0993183851242065e-01</leafValues></_>
        <_>
          <internalNodes>
            0 -1 180 -75546873 424369207 8902830 542890007 -87431420
            -1769926142 -1297116438 -251663409</internalNodes>
          <leafValues>
            -4.0557637810707092e-01 3.9237859845161438e-01</leafValues></_>
        <_>
          <internalNodes>
            0 -1 119 -1074742636 1067137462 -678047241 -1086344794
            -1128817137 -1086123776 418684607 1004010167</internalNodes>
          <leafValues>
            -4.9902254343032837e-01 3.0474722385406494e-01</leafValues></_>
        <_>
          <internalNodes>
            0 -1 21 -34668546 -17841690 -556141698 1162822150 -589267982
            -342922953 -78263855 1565481845</internalNodes>
          <leafValues>
            -5.3044337034225464e-01 2.5066030025482178e-01</leafValues></_>
        <_>
          <internalNodes>
            0 -1 62 -316015718 -349973968 487030771 1429827793
            -1901350661 -1085592934 67583643 1569673712</internalNodes>
          <leafValues>
            -3.9947989583015442e-01 3.5841053724288940e-01</leafValues></_>
        <_>
          <internalNodes>
            0 -1 16 -38822865 495075899 -1563377986 743522377 -4259811
            -546815648 373868763 -301614241</internalNodes>
          <leafValues>
            -3.6307030916213989e-01 3.7071046233177185e-01</leafValues></_>
        <_>
          <internalNodes>
            0 -1 86 -313084996 1496312691 463967679 1066877184
            -1147518769 -1952760577 -1740927094 -1159243951</internalNodes>
          <leafValues>
            -3.8021340966224670e-01 3.5937005281448364e-01</leafValues></_>
        <_>
          <internalNodes>
            0 -1 158 -19048372 -545445549 807273623 816258014
            -1017456630 -114611570 272149150 -1224941893</internalNodes>
          <leafValues>
            -3.8045945763587952e-01 3.4735813736915588e-01</leafValues></_>
        <_>
          <internalNodes>
            0 -1 79 1528314504 -275300420 714284323 1069555871
            -1080169031 -1616312784 1777074159 459478856</internalNodes>
          <leafValues>
            -5.5286133289337158e-01 2.3982162773609161e-01</leafValues></_></weakClassifiers></_>
    <!-- stage 7 -->
    <_>
      <maxWeakCount>13</maxWeakCount>
      <stageThreshold>-1.1046768426895142e+00</stageThreshold>
      <weakClassifiers>
        <_>
          <internalNodes>
            0 -1 154 -33554972 1375073605 1158675712 84792829 -167774336
            1979151845 -1056449275 90174793</internalNodes>
          <leafValues>
            -2.1768707036972046e-01 7.2698462009429932e-01</leafValues></_>
        <_>
          <internalNodes>
            0 -1 1 -284426245 -273685886 239534835 1610593842 1313587199
            -3504387 369575671 -2061</internalNodes>
          <leafValues>
            -2.2735261917114258e-01 6.3628411293029785e-01</leafValues></_>
        <_>
          <internalNodes>
            0 -1 163 -538186566 -1416953928 1357844592 -537398291
            -805325893 247118754 1237123264 -1915751185</internalNodes>
          <leafValues>
            -4.1033741831779480e-01 4.2654407024383545e-01</leafValues></_>
        <_>
          <internalNodes>
            0 -1 38 -602401 -544010337 1411436372 -563021589 -411237293
            1331562605 -601796869 1599033087</internalNodes>
          <leafValues>
            -4.3738919496536255e-01 3.7543666362762451e-01</leafValues></_>
        <_>
          <internalNodes>
            0 -1 124 -1082622468 866957311 -1751395570 600833678
            1404559308 -2085357917 -609240402 -15732754</internalNodes>
          <leafValues>
            -4.3373465538024902e-01 3.5660278797149658e-01</leafValues></_>
        <_>
          <internalNodes>
            0 -1 68 -307495214 -14480734 1338998775 -546229645
            -1943093270 -1079001094 1327446015 -69502991</internalNodes>
          <leafValues>
            -3.7028834223747253e-01 3.9821490645408630e-01</leafValues></_>
        <_>
          <internalNodes>
            0 -1 107 -1124041756 1066406671 -1030826498 -170419550
            -46532623 -1213707727 -727082241 -1309377814</internalNodes>
          <leafValues>
            -4.6303457021713257e-01 2.9713541269302368e-01</leafValues></_>
        <_>
          <internalNodes>
            0 -1 126 -1711409676 -1256599532 -771560366 1964241751
            -463124536 976611876 -1890643550 204207282</internalNodes>
          <leafValues>
            -5.2880692481994629e-01 2.5943934917449951e-01</leafValues></_>
        <_>
          <internalNodes>
            0 -1 52 -527105 158162931 -1091503361 1779594111 -25295796
            1779387395 -25494600 -10749093</internalNodes>
          <leafValues>
            -2.9572182893753052e-01 4.6684738993644714e-01</leafValues></_>
        <_>
          <internalNodes>
            0 -1 7 -85787654 -6273990 -159756625 1258200290 -668984527
            -892864 1078990860 1417631731</internalNodes>
          <leafValues>
            -6.0033953189849854e-01 2.2295784950256348e-01</leafValues></_>
        <_>
          <internalNodes>
            0 -1 165 -629203377 2136414415 571559967 268819423 -99694070
            -601744367 -366832902 -93390641</internalNodes>
          <leafValues>
            -3.6433982849121094e-01 3.7057006359100342e-01</leafValues></_>
        <_>
          <internalNodes>
            0 -1 63 -1151720168 897304018 -184012852 2008099024
            570766826 -1438059366 1856137867 327620279</internalNodes>
          <leafValues>
            -5.0623083114624023e-01 2.6854488253593445e-01</leafValues></_>
        <_>
          <internalNodes>
            0 -1 42 -275781757 -1513627090 1887639090 -676498784
            80580591 -1940967429 98460406 -571522922</internalNodes>
          <leafValues>
            -3.3197748661041260e-01 3.7925559282302856e-01</leafValues></_></weakClassifiers></_>
    <!-- stage 8 -->
    <_>
      <maxWeakCount>14</maxWeakCount>
      <stageThreshold>-7.9708331823348999e-01</stageThreshold>
      <weakClassifiers>
        <_>
          <internalNodes>
            0 -1 43 -960304402 -1469060374 1459767820 248234694
            1718657975 41539303 1426201359 386002815</internalNodes>
          <leafValues>
            -1.2632024288177490e-01 7.3297435045242310e-01</leafValues></_>
        <_>
          <internalNodes>
            0 -1 160 -8689 859518767 540242451 808838943 -86258688
            -351535346 -83899719 -203423813</internalNodes>
          <leafValues>
            -2.7867904305458069e-01 5.5354690551757812e-01</leafValues></_>
        <_>
          <internalNodes>
            0 -1 59 -126422278 -34088228 -832373448 -2359555 -930442598
            1486220027 1507458047 1532183059</internalNodes>
          <leafValues>
            -4.6218240261077881e-01 3.7438765168190002e-01</leafValues></_>
        <_>
          <internalNodes>
            0 -1 182 -35653653 -275777141 -1055683198 -269505046
            -356538457 1157735351 -419174940 -976227357</internalNodes>
          <leafValues>
            -3.6369609832763672e-01 4.0330880880355835e-01</leafValues></_>
        <_>
          <internalNodes>
            0 -1 99 -1133479939 -994441 -1402070130 -1088958033
            -642792963 -224419631 -590378769 -575160582</internalNodes>
          <leafValues>
            -4.2883175611495972e-01 3.5678434371948242e-01</leafValues></_>
        <_>
          <internalNodes>
            0 -1 33 -1918111233 -808584350 869490929 -4200453 210748671
            234690543 1467447203 -41</internalNodes>
          <leafValues>
            -3.2309323549270630e-01 4.6012234687805176e-01</leafValues></_>
        <_>
          <internalNodes>
            0 -1 95 -755728144 -105116947 -697709428 -189477 -371680321
            -1417606503 -1657988625 223677995</internalNodes>
          <leafValues>
            -4.3121388554573059e-01 3.0269557237625122e-01</leafValues></_>
        <_>
          <internalNodes>
            0 -1 155 -241174133 -2085963870 -134876879 2111504691
            1439518203 1329249739 1157092849 -913310565</internalNodes>
          <leafValues>
            -3.3843156695365906e-01 4.0338152647018433e-01</leafValues></_>
        <_>
          <internalNodes>
            0 -1 82 -1075027092 -2817044 -1691883382 -1848413706
            1381165922 278937787 -637537794 -623489496</internalNodes>
          <leafValues>
            -4.6175190806388855e-01 2.5387579202651978e-01</leafValues></_>
        <_>
          <internalNodes>
            0 -1 70 2094002658 537891124 1439035566 994345610 1934113378
            1090566528 596353470 991935370</internalNodes>
          <leafValues>
            -5.2564316987991333e-01 2.2515173256397247e-01</leafValues></_>
        <_>
          <internalNodes>
            0 -1 183 -67154697 -213945465 -346369 1594968451 -1069640993
            -161007244 -229049633 -626328070</internalNodes>
          <leafValues>
            -2.4787037074565887e-01 4.9743050336837769e-01</leafValues></_>
        <_>
          <internalNodes>
            0 -1 149 -6947652 -82772232 -704916232 -2899983 1610318778
            254487346 -1112604488 -1894778662</internalNodes>
          <leafValues>
            -3.1273972988128662e-01 3.6897677183151245e-01</leafValues></_>
        <_>
          <internalNodes>
            0 -1 6 -1410310 -1329414036 -371940813 -387526938 -217874558
            -1957768719 1498425865 -2064981272</internalNodes>
          <leafValues>
            -4.7467145323753357e-01 2.4413572251796722e-01</leafValues></_>
        <_>
          <internalNodes>
            0 -1 111 -1263001604 -1796619454 -15481014 -108711996
            -3326985 -1062752090 -253136500 1693790837</internalNodes>
          <leafValues>
            -4.8737350106239319e-01 2.3970401287078857e-01</leafValues></_></weakClassifiers></_>
    <!-- stage 9 -->
    <_>
      <maxWeakCount>16</maxWeakCount>
      <stageThreshold>-1.1003406047821045e+00</stageThreshold>
      <weakClassifiers>
        <_>
          <internalNodes>
            0 -1 162 -270536920 -1515192401 -335547680 -269521169
            -839923771 1150152655 -1060125568 1087371243</internalNodes>
          <leafValues>
            -6.0606062412261963e-02 7.3367685079574585e-01</leafValues></_>
        <_>
          <internalNodes>
            0 -1 90 -1298595 -9126062 -1077956721 387384064 -42074883
            -1074659395 417054655 -1325945089</internalNodes>
          <leafValues>
            -3.8246861100196838e-01 4.6202579140663147e-01</leafValues></_>
        <_>
          <internalNodes>
            0 -1 133 -134220357 -2085897301 -1111532175 -576192519
            -656418371 -1432691029 -842170883 -812646913</internalNodes>
          <leafValues>
            -3.0171409249305725e-01 5.2048957347869873e-01</leafValues></_>
        <_>
          <internalNodes>
            0 -1 40 1184807930 -526374 587670693 2045745623 -107807810
            1001935368 1604321267 2145386429</internalNodes>
          <leafValues>
            -4.1173020005226135e-01 3.5994660854339600e-01</leafValues></_>
        <_>
          <internalNodes>
            0 -1 23 -806362601 -349525374 298984311 -3458605 1598992367
            -1392058688 1195728883 -816842765</internalNodes>
          <leafValues>
            -3.4875795245170593e-01 3.9648285508155823e-01</leafValues></_>
        <_>
          <internalNodes>
            0 -1 105 -4477187 1527054612 1564070095 -1079042147
            -1701854481 1813762459 -508112402 -2001800348</internalNodes>
          <leafValues>
            -4.2173045873641968e-01 3.0697143077850342e-01</leafValues></_>
        <_>
          <internalNodes>
            0 -1 37 -226694514 156093167 1384546318 1889261090
            -767325941 50592265 -1714564870 1349769819</internalNodes>
          <leafValues>
            -4.5689511299133301e-01 2.9727700352668762e-01</leafValues></_>
        <_>
          <internalNodes>
            0 -1 129 -38060104 414954556 455851875 1406372735
            -1297136054 5366969 1095450152 1360709324</internalNodes>
          <leafValues>
            -5.4343146085739136e-01 2.1004609763622284e-01</leafValues></_>
        <_>
          <internalNodes>
            0 -1 137 -85984993 2132606997 377437822 311442261 1518336520
            -552064940 541063930 -629705090</internalNodes>
          <leafValues>
            -3.3980312943458557e-01 3.5804438591003418e-01</leafValues></_>
        <_>
          <internalNodes>
            0 -1 19 -1068899676 -171105549 -1014253901 1442779486
            -391189621 -1090051372 -863385111 1447839475</internalNodes>
          <leafValues>
            -3.8236373662948608e-01 3.1638884544372559e-01</leafValues></_>
        <_>
          <internalNodes>
            0 -1 44 -203247629 -1183766 1639778139 -8423850 1849868271
            -35176468 1413879495 -573605889</internalNodes>
          <leafValues>
            -2.5682649016380310e-01 4.5337599515914917e-01</leafValues></_>
        <_>
          <internalNodes>
            0 -1 187 -206045461 -877727862 -1249963727 -578255
            1431252223 1280262029 360542705 -842006697</internalNodes>
          <leafValues>
            -2.6375958323478699e-01 4.3972775340080261e-01</leafValues></_>
        <_>
          <internalNodes>
            0 -1 78 -1342932100 2043415533 -1324771169 -38593622
            239468649 1076925387 13362158 682783684</internalNodes>
          <leafValues>
            -4.6524795889854431e-01 2.5226902961730957e-01</leafValues></_>
        <_>
          <internalNodes>
            0 -1 117 -552913776 269873936 1027526770 2039807710
            1167524257 253698343 2043116539 773775419</internalNodes>
          <leafValues>
            -4.1732448339462280e-01 2.5531435012817383e-01</leafValues></_>
        <_>
          <internalNodes>
            0 -1 147 -90504100 -582278083 -1331632129 964296471
            -232126210 -541185640 -1642555685 -569720481</internalNodes>
          <leafValues>
            -3.0934923887252808e-01 3.6150127649307251e-01</leafValues></_>
        <_>
          <internalNodes>
            0 -1 53 -746602785 189901997 -1304903682 1058209487
            -555286516 203310320 -1141190915 -552349349</internalNodes>
          <leafValues>
            -2.5775352120399475e-01 4.3709293007850647e-01</leafValues></_></weakClassifiers></_>
    <!-- stage 10 -->
    <_>
      <maxWeakCount>15</maxWeakCount>
      <stageThreshold>-9.4333863258361816e-01</stageThreshold>
      <weakClassifiers>
        <_>
          <internalNodes>
            0 -1 88 -270218244 -9316576 -1089654876 1058477875
            -1929390852 -1611206408 -1648390481 758328199</internalNodes>
          <leafValues>
            -2.4863222241401672e-01 7.0157301425933838e-01</leafValues></_>
        <_>
          <internalNodes>
            0 -1 56 -286261285 -9458958 232092659 1607950610 -838025473
            -892365389 1326151671 -304089101</internalNodes>
          <leafValues>
            -2.0556983351707458e-01 6.1126869916915894e-01</leafValues></_>
        <_>
          <internalNodes>
            0 -1 164 -419430898 -609274361 845412607 1429634893
            -1325430616 -16777351 -524812355 -256905486</internalNodes>
          <leafValues>
            -3.3975934982299805e-01 4.4270563125610352e-01</leafValues></_>
        <_>
          <internalNodes>
            0 -1 14 -4353 -545265697 -92119812 -1190068481 -67173252
            -45123 -953901905 -25166257</internalNodes>
          <leafValues>
            -3.1373450160026550e-01 4.4823375344276428e-01</leafValues></_>
        <_>
          <internalNodes>
            0 -1 108 409499111 2145679319 -3146790 -2254962 -1165110881
            1066074580 -20190257 992879662</internalNodes>
          <leafValues>
            -5.2506667375564575e-01 2.3197163641452789e-01</leafValues></_>
        <_>
          <internalNodes>
            0 -1 28 -269045778 -103329522 -619658302 -1348295702
            1596062719 2066102370 -70313025 -281806613</internalNodes>
          <leafValues>
            -4.2358812689781189e-01 2.8815647959709167e-01</leafValues></_>
        <_>
          <internalNodes>
            0 -1 132 -1350828631 -1174175344 -756682764 -585903674
            1470089705 -1141221904 -1690317065 -1078991629</internalNodes>
          <leafValues>
            -3.0840316414833069e-01 4.0362524986267090e-01</leafValues></_>
        <_>
          <internalNodes>
            0 -1 153 -556019617 -581363448 2088730623 1393775230
            -17114422 -658533803 -1166869794 -1166345637</internalNodes>
          <leafValues>
            -2.6432034373283386e-01 4.6263298392295837e-01</leafValues></_>
        <_>
          <internalNodes>
            0 -1 134 -706742851 -51520163 884455091 367261539
            -1082655356 -1091657924 8359482 -416023783</internalNodes>
          <leafValues>
            -2.6250517368316650e-01 4.8542281985282898e-01</leafValues></_>
        <_>
          <internalNodes>
            0 -1 146 -637536782 -1086604014 1602123125 1609005524
            -1668178280 -1355090632 479795417 260697242</internalNodes>
          <leafValues>
            -3.2395163178443909e-01 3.4524157643318176e-01</leafValues></_>
        <_>
          <internalNodes>
            0 -1 58 -33558566 224721794 680605936 2099502455 -919057962
            1224921288 1434919120 -19683109</internalNodes>
          <leafValues>
            -3.3555829524993896e-01 3.2510986924171448e-01</leafValues></_>
        <_>
          <internalNodes>
            0 -1 102 -1149739523 -1243048993 -1730195314 -540827138
            -1881435168 -462746621 1219457188 -1598652343</internalNodes>
          <leafValues>
            -3.4143504500389099e-01 3.1786113977432251e-01</leafValues></_>
        <_>
          <internalNodes>
            0 -1 25 -311961633 -953161818 1404041010 -614600798
            1297020895 -844673308 382154483 -67111033</internalNodes>
          <leafValues>
            -2.2994503378868103e-01 4.8473331332206726e-01</leafValues></_>
        <_>
          <internalNodes>
            0 -1 69 -230700421 2133061361 -286988578 -1877934149
            -50919860 -550417895 -83161097 -82580517</internalNodes>
          <leafValues>
            -2.9048907756805420e-01 3.7577778100967407e-01</leafValues></_>
        <_>
          <internalNodes>
            0 -1 113 -121580332 -128417900 1158223487 -43178049
            1938379225 -1580681825 -1509662787 721446663</internalNodes>
          <leafValues>
            -3.6849322915077209e-01 2.9348227381706238e-01</leafValues></_></weakClassifiers></_>
    <!-- stage 11 -->
    <_>
      <maxWeakCount>16</maxWeakCount>
      <stageThreshold>-7.7776706218719482e-01</stageThreshold>
      <weakClassifiers>
        <_>
          <internalNodes>
            0 -1 35 281028604 1073149418 -1509953569 2145550578
            346042612 820018592 1087760616 1442141426</internalNodes>
          <leafValues>
            -8.5096806287765503e-02 7.1598559617996216e-01</leafValues></_>
        <_>
          <internalNodes>
            0 -1 48 -4263970 1071480831 2050145978 2132437563 1610286312
            1499401312 -34087688 1599560987</internalNodes>
          <leafValues>
            -3.4104716777801514e-01 4.6866926550865173e-01</leafValues></_>
        <_>
          <internalNodes>
            0 -1 177 -16777457 1934587487 1421682176 274125778
            -136839420 1916209411 -584058386 -168297586</internalNodes>
          <leafValues>
            -3.7963783740997314e-01 3.8178777694702148e-01</leafValues></_>
        <_>
          <internalNodes>
            0 -1 103 -136335795 -549077073 -1928914897 -1615613553
            -628379589 -1844977161 -594674753 -118197419</internalNodes>
          <leafValues>
            -4.4732180237770081e-01 3.0624666810035706e-01</leafValues></_>
        <_>
          <internalNodes>
            0 -1 106 -2637935 520595891 -19149 -1244403725 -402653249
            -1129316423 -54804823 -1983910929</internalNodes>
          <leafValues>
            -2.5450941920280457e-01 5.2009075880050659e-01</leafValues></_>
        <_>
          <internalNodes>
            0 -1 159 -586811397 -2096130136 -1107578383 -536872623
            2010085295 765552586 -984661761 -543166225</internalNodes>
          <leafValues>
            -2.6164931058883667e-01 5.1313525438308716e-01</leafValues></_>
        <_>
          <internalNodes>
            0 -1 18 -953513266 43583741 -182198281 1871130078 -16713768
            -385262659 -1706760272 1512011259</internalNodes>
          <leafValues>
            -4.8459964990615845e-01 2.7162909507751465e-01</leafValues></_>
        <_>
          <internalNodes>
            0 -1 60 -230702354 -1947358505 -770518802 -124194209
            1490800193 1330359181 -654783794 -15208693</internalNodes>
          <leafValues>
            -3.4537911415100098e-01 3.1464794278144836e-01</leafValues></_>
        <_>
          <internalNodes>
            0 -1 121 462426532 797349316 -1660439100 -272238675
            427936751 1138462897 -1148521558 -1392749676</internalNodes>
          <leafValues>
            -4.1603791713714600e-01 2.8334400057792664e-01</leafValues></_>
        <_>
          <internalNodes>
            0 -1 139 -159716404 1567763805 12988863 271371819 -97786616
            -657060736 -34233926 1593305323</internalNodes>
          <leafValues>
            -3.6382380127906799e-01 3.0479413270950317e-01</leafValues></_>
        <_>
          <internalNodes>
            0 -1 145 -100828692 960491772 1661443360 809476255
            -1042833037 2120725430 -48296951 1168096744</internalNodes>
          <leafValues>
            -5.2659535408020020e-01 2.2220286726951599e-01</leafValues></_>
        <_>
          <internalNodes>
            0 -1 143 -747481060 1881738581 22137685 225644817
            -1148051814 -1080831430 -1173718853 503468851</internalNodes>
          <leafValues>
            -4.4215631484985352e-01 2.5173380970954895e-01</leafValues></_>
        <_>
          <internalNodes>
            0 -1 8 -813715549 -1165580306 2083516076 -38811062
            1257461695 1386406893 1181704375 -1262487892</internalNodes>
          <leafValues>
            -3.1047207117080688e-01 3.5821610689163208e-01</leafValues></_>
        <_>
          <internalNodes>
            0 -1 140 -42733104 -1584749392 736525680 -1817321295
            219916477 -1074015888 -870189771 -860633346</internalNodes>
          <leafValues>
            -3.3274760842323303e-01 3.3982837200164795e-01</leafValues></_>
        <_>
          <internalNodes>
            0 -1 109 -1172292204 1299472710 1944319854 -167853035
            -452080652 -1198968809 21965558 989753974</internalNodes>
          <leafValues>
            -4.8239257931709290e-01 2.3474860191345215e-01</leafValues></_>
        <_>
          <internalNodes>
            0 -1 10 -2104578 1407179320 -1162602990 910426090 -34120162
            471602508 -25694500 -43647153</internalNodes>
          <leafValues>
            -2.7452516555786133e-01 3.8645091652870178e-01</leafValues></_></weakClassifiers></_>
    <!-- stage 12 -->
    <_>
      <maxWeakCount>17</maxWeakCount>
      <stageThreshold>-7.8446793556213379e-01</stageThreshold>
      <weakClassifiers>
        <_>
          <internalNodes>
            0 -1 77 2145668932 2144829294 -1079513152 536303426
            1596214959 821515199 -43524870 930604850</internalNodes>
          <leafValues>
            -1.7596101760864258e-01 7.0596289634704590e-01</leafValues></_>
        <_>
          <internalNodes>
            0 -1 144 -620757413 -144724385 446118009 274035542
            -1629495798 -621031784 -1160007938 -83886373</internalNodes>
          <leafValues>
            -2.2623658180236816e-01 5.5670011043548584e-01</leafValues></_>
        <_>
          <internalNodes>
            0 -1 94 1347812299 2040476643 861912983 2145327087
            1916846062 -871458 1594588142 1875618474</internalNodes>
          <leafValues>
            -3.1913450360298157e-01 4.2667317390441895e-01</leafValues></_>
        <_>
          <internalNodes>
            0 -1 188 -2097337 1624732407 -970002870 1183310443
            -167778779 1410856051 -202921014 -169345294</internalNodes>
          <leafValues>
            -3.0205777287483215e-01 4.3372067809104919e-01</leafValues></_>
        <_>
          <internalNodes>
            0 -1 97 -808912307 -13580801 355113071 -1087928827
            -1906605829 1936535039 -1694830097 -390662283</internalNodes>
          <leafValues>
            -4.1283640265464783e-01 2.8043529391288757e-01</leafValues></_>
        <_>
          <internalNodes>
            0 -1 171 -611583045 -1624573784 -1644170379 -41958024
            374281983 -1886670853 1232688377 -842014471</internalNodes>
          <leafValues>
            -2.6786786317825317e-01 4.0797293186187744e-01</leafValues></_>
        <_>
          <internalNodes>
            0 -1 74 -1107542052 1065343485 776706058 2055428544
            1594825434 280463482 1351075404 -1205679515</internalNodes>
          <leafValues>
            -4.8223304748535156e-01 2.3621307313442230e-01</leafValues></_>
        <_>
          <internalNodes>
            0 -1 41 -303042834 1632986244 1318352183 1196901254
            -1035304294 -1944862069 14759615 1074779414</internalNodes>
          <leafValues>
            -3.6033275723457336e-01 3.1188499927520752e-01</leafValues></_>
        <_>
          <internalNodes>
            0 -1 5 -555291454 -1516075314 1007233435 -1258279510
            631323381 -36122608 1897924071 1908097269</internalNodes>
          <leafValues>
            -5.1894491910934448e-01 2.0449873805046082e-01</leafValues></_>
        <_>
          <internalNodes>
            0 -1 11 -285743361 2103327260 -81772554 -112148738 -17952532
            -587461580 -84628328 -10527525</internalNodes>
          <leafValues>
            -2.7437967061996460e-01 3.8401484489440918e-01</leafValues></_>
        <_>
          <internalNodes>
            0 -1 120 365579948 355552644 819019679 904382914 -223823228
            1947731699 814889124 580933412</internalNodes>
          <leafValues>
            -5.4213112592697144e-01 1.9734942913055420e-01</leafValues></_>
        <_>
          <internalNodes>
            0 -1 151 -71881799 -114976631 -134790247 -1116487878
            -1552208974 1796185002 -975752501 -930089573</internalNodes>
          <leafValues>
            -2.5569939613342285e-01 4.1509592533111572e-01</leafValues></_>
        <_>
          <internalNodes>
            0 -1 50 -1812276670 -379006521 1059855200 -858806322
            1458540503 1216597944 1539006903 1112036234</internalNodes>
          <leafValues>
            -5.3900545835494995e-01 1.8740469217300415e-01</leafValues></_>
        <_>
          <internalNodes>
            0 -1 115 -1125221395 -1192116702 -326116690 -69738362
            -57026831 -1320972735 -1295306005 -521260262</internalNodes>
          <leafValues>
            -3.3066689968109131e-01 3.0179575085639954e-01</leafValues></_>
        <_>
          <internalNodes>
            0 -1 186 -1081368525 -1551450110 1137810224 -1156730871
            831601079 135991952 422397073 -1040203536</internalNodes>
          <leafValues>
            -3.4411522746086121e-01 3.0891311168670654e-01</leafValues></_>
        <_>
          <internalNodes>
            0 -1 66 -606012948 -757310455 1459628421 189100886
            -109408014 2021134882 470035326 1601313551</internalNodes>
          <leafValues>
            -5.5392062664031982e-01 1.8179297447204590e-01</leafValues></_>
        <_>
          <internalNodes>
            0 -1 122 -799402938 -1688267503 -883680646 1064670454
            1024979513 1197180997 383166411 36598835</internalNodes>
          <leafValues>
            -4.5987051725387573e-01 2.1551387012004852e-01</leafValues></_></weakClassifiers></_>
    <!-- stage 13 -->
    <_>
      <maxWeakCount>17</maxWeakCount>
      <stageThreshold>-1.0922398567199707e+00</stageThreshold>
      <weakClassifiers>
        <_>
          <internalNodes>
            0 -1 55 1587735798 -617035531 610721141 392263479 -859566106
            502531100 -330964997 1433880391</internalNodes>
          <leafValues>
            7.3994472622871399e-02 7.4254560470581055e-01</leafValues></_>
        <_>
          <internalNodes>
            0 -1 27 -271585297 -814813202 644031155 -135070510 98019327
            1308612428 2002740727 -187171586</internalNodes>
          <leafValues>
            -2.1698035299777985e-01 5.1916265487670898e-01</leafValues></_>
        <_>
          <internalNodes>
            0 -1 93 -15306625 1873607668 -889146417 -1659925073
            -893468565 1870479765 -742722641 -1968248971</internalNodes>
          <leafValues>
            -3.5521245002746582e-01 3.7735664844512939e-01</leafValues></_>
        <_>
          <internalNodes>
            0 -1 174 -227030963 -547481853 1952804981 857545503
            -623144248 -395367239 818145784 844819422</internalNodes>
          <leafValues>
            -3.7248450517654419e-01 3.3848410844802856e-01</leafValues></_>
        <_>
          <internalNodes>
            0 -1 118 -543162959 -1248743119 -273385999 -1288306763
            -1174407683 -1077952525 1505319233 -1928348945</internalNodes>
          <leafValues>
            -3.0229908227920532e-01 4.0285849571228027e-01</leafValues></_>
        <_>
          <internalNodes>
            0 -1 148 -1375733252 1499175135 -988094202 156929015
            419803981 458039987 -819988137 522185155</internalNodes>
          <leafValues>
            -4.5787042379379272e-01 2.3066940903663635e-01</leafValues></_>
        <_>
          <internalNodes>
            0 -1 72 -1142363236 -1612846210 2103257815 904921750
            951861166 201124774 2140240623 1943496695</internalNodes>
          <leafValues>
            -4.5842635631561279e-01 2.3404486477375031e-01</leafValues></_>
        <_>
          <internalNodes>
            0 -1 168 -844366942 -880090326 -167855311 -537200785
            -703630369 -2043222280 -707284489 -586161949</internalNodes>
          <leafValues>
            -2.7534380555152893e-01 3.6822026968002319e-01</leafValues></_>
        <_>
          <internalNodes>
            0 -1 45 -1489055794 -610361572 -559113460 -1544811808
            -1836266635 -826750000 -947263585 1086517632</internalNodes>
          <leafValues>
            -5.6933313608169556e-01 1.8025682866573334e-01</leafValues></_>
        <_>
          <internalNodes>
            0 -1 152 -665888741 -610428021 2076139355 2069344127
            -562354022 450869279 -1674134585 -1710557573</internalNodes>
          <leafValues>
            -2.8262028098106384e-01 3.6908411979675293e-01</leafValues></_>
        <_>
          <internalNodes>
            0 -1 29 -834490898 -3239506 -132233182 792857894 1979765695
            1664714773 -1108894753 -703121029</internalNodes>
          <leafValues>
            -4.6460148692131042e-01 2.0936548709869385e-01</leafValues></_>
        <_>
          <internalNodes>
            0 -1 76 -629484062 1672712967 608708880 -799429409
            1611690672 196106299 2074027472 1532183291</internalNodes>
          <leafValues>
            -4.2671710252761841e-01 2.3363374173641205e-01</leafValues></_>
        <_>
          <internalNodes>
            0 -1 175 -654848508 1903493383 838981908 805454734
            -1161352704 -277229245 -1328715384 -241763548</internalNodes>
          <leafValues>
            -4.0985155105590820e-01 2.3594003915786743e-01</leafValues></_>
        <_>
          <internalNodes>
            0 -1 116 1869900028 1731118807 -1895366354 331055990
            84885626 3876493 412063663 -862557610</internalNodes>
          <leafValues>
            -5.1054263114929199e-01 1.9687668979167938e-01</leafValues></_>
        <_>
          <internalNodes>
            0 -1 13 -1845495809 -10490185 -185942305 -1856430369
            -536945080 525159691 -707202341 -614745489</internalNodes>
          <leafValues>
            -2.0494575798511505e-01 5.2717572450637817e-01</leafValues></_>
        <_>
          <internalNodes>
            0 -1 161 -538093473 2037715997 -2144477999 309834589
            -327170038 -836911307 -1462709509 -1170688353</internalNodes>
          <leafValues>
            -3.0198472738265991e-01 3.4048384428024292e-01</leafValues></_>
        <_>
          <internalNodes>
            0 -1 110 -1205314340 903614788 -1292503828 -1612479268
            1924002804 824789520 1956213181 542057126</internalNodes>
          <leafValues>
            -4.7849333286285400e-01 2.0637056231498718e-01</leafValues></_></weakClassifiers></_>
    <!-- stage 14 -->
    <_>
      <maxWeakCount>18</maxWeakCount>
      <stageThreshold>-9.6487236022949219e-01</stageThreshold>
      <weakClassifiers>
        <_>
          <internalNodes>
            0 -1 96 -1259310603 -67898081 -1364197402 -6029534
            -637844227 -134547459 95292618 698543018</internalNodes>
          <leafValues>
            6.3680000603199005e-02 7.3782646656036377e-01</leafValues></_>
        <_>
          <internalNodes>
            0 -1 30 -29441 -70299907 -761996033 524613343 -607191032
            -29670371 -939356929 -28311829</internalNodes>
          <leafValues>
            -2.0200325548648834e-01 5.4086631536483765e-01</leafValues></_>
        <_>
          <internalNodes>
            0 -1 178 -65 -1615421762 -1077998340 -4530694 2045219199
            473062874 1069239800 -303105</internalNodes>
          <leafValues>
            -2.5714373588562012e-01 4.7408339381217957e-01</leafValues></_>
        <_>
          <internalNodes>
            0 -1 80 2079666616 -1113610100 542726155 -106315828
            -136332801 -1396035188 1527740763 467598044</internalNodes>
          <leafValues>
            -4.7474548220634460e-01 2.6603993773460388e-01</leafValues></_>
        <_>
          <internalNodes>
            0 -1 67 -76874029 -1493130510 -785678337 1370559479
            -2006799637 -1722028366 143343359 -1612753453</internalNodes>
          <leafValues>
            -3.5327440500259399e-01 3.2338699698448181e-01</leafValues></_>
        <_>
          <internalNodes>
            0 -1 125 -128122920 -146341520 908499830 1465373719
            -716600538 1028663168 805027698 254014642</internalNodes>
          <leafValues>
            -4.4567468762397766e-01 2.5727716088294983e-01</leafValues></_>
        <_>
          <internalNodes>
            0 -1 46 -1073795090 880230783 -220343092 -566226538
            280583093 1156100392 1826397068 -939476846</internalNodes>
          <leafValues>
            -5.1885533332824707e-01 1.9230207800865173e-01</leafValues></_>
        <_>
          <internalNodes>
            0 -1 26 -253299042 -128718178 1745348612 -309870454
            -1006441473 549631616 1430653709 808164271</internalNodes>
          <leafValues>
            -4.5693269371986389e-01 2.3820851743221283e-01</leafValues></_>
        <_>
          <internalNodes>
            0 -1 172 -68463397 -67152868 -1275137841 -1216543201
            -622404390 -295191049 -1145898053 -80545121</internalNodes>
          <leafValues>
            -2.5640627741813660e-01 4.1429191827774048e-01</leafValues></_>
        <_>
          <internalNodes>
            0 -1 73 1860580140 569105007 1935638914 1062200002
            -874383958 720443788 1193480583 1915157087</internalNodes>
          <leafValues>
            -4.4587633013725281e-01 2.3823504149913788e-01</leafValues></_>
        <_>
          <internalNodes>
            0 -1 169 -672157917 1365233671 40195084 840878734 1166238467
            555976564 -78392084 -508066307</internalNodes>
          <leafValues>
            -3.8644614815711975e-01 2.5199490785598755e-01</leafValues></_>
        <_>
          <internalNodes>
            0 -1 61 -136916246 1782164382 -2122203033 713278415
            1600087200 1976009869 1473975538 319661007</internalNodes>
          <leafValues>
            -4.8898881673812866e-01 1.9617746770381927e-01</leafValues></_>
        <_>
          <internalNodes>
            0 -1 39 -908025674 1507029017 396743569 1132876170 680193474
            -552954875 -995317057 -810724874</internalNodes>
          <leafValues>
            -3.3285611867904663e-01 3.0353382229804993e-01</leafValues></_>
        <_>
          <internalNodes>
            0 -1 112 1045446625 -639387666 -536936608 -33816585
            -168493114 -1493188609 -405276729 -419742377</internalNodes>
          <leafValues>
            -3.0419602990150452e-01 3.3251243829727173e-01</leafValues></_>
        <_>
          <internalNodes>
            0 -1 179 2004315059 -1928440536 -736390767 -2014998188
            2062903194 1338541472 1082487124 -984620591</internalNodes>
          <leafValues>
            -3.3508855104446411e-01 2.8213188052177429e-01</leafValues></_>
        <_>
          <internalNodes>
            0 -1 128 -761078252 907040564 272898687 544592351 2081114256
            -667927888 847618162 -17329418</internalNodes>
          <leafValues>
            -3.6462000012397766e-01 2.7476990222930908e-01</leafValues></_>
        <_>
          <internalNodes>
            0 -1 87 -168496208 1262765378 -530015100 1502962438
            -1041110784 1095012387 -370040544 1499835138</internalNodes>
          <leafValues>
            -6.5171974897384644e-01 1.4673915505409241e-01</leafValues></_>
        <_>
          <internalNodes>
            0 -1 64 -112169474 -1211448190 -677699534 -688311646
            545562086 -1151665947 1904308452 -709397057</internalNodes>
          <leafValues>
            -3.2394766807556152e-01 3.0226713418960571e-01</leafValues></_></weakClassifiers></_></stages>
  <features>
    <_>
      <rect>
        0 0 13 7</rect></_>
    <_>
      <rect>
        0 2 7 3</rect></_>
    <_>
      <rect>
        0 4 6 4</rect></_>
    <_>
      <rect>
        0 4 12 6</rect></_>
    <_>
      <rect>
        0 6 7 5</rect></_>
    <_>
      <rect>
        0 7 8 5</rect></_>
    <_>
      <rect>
        0 9 6 9</rect></_>
    <_>
      <rect>
        0 10 10 9</rect></_>
    <_>
      <rect>
        0 14 4 3</rect></_>
    <_>
      <rect>
        0 17 6 6</rect></_>
    <_>
      <rect>
        0 22 3 4</rect></_>
    <_>
      <rect>
        0 22 4 6</rect></_>
    <_>
      <rect>
        0 24 5 2</rect></_>
    <_>
      <rect>
        0 25 3 3</rect></_>
    <_>
      <rect>
        0 28 7 4</rect></_>
    <_>
      <rect>
        0 28 8 4</rect></_>
    <_>
      <rect>
        0 30 6 3</rect></_>
    <_>
      <rect>
        0 31 7 3</rect></_>
    <_>
      <rect>
        1 0 8 8</rect></_>
    <_>
      <rect>
        1 1 4 8</rect></_>
    <_>
      <rect>
        1 1 9 3</rect></_>
    <_>
      <rect>
        1 3 9 10</rect></_>
    <_>
      <rect>
        1 3 10 10</rect></_>
    <_>
      <rect>
        1 4 6 4</rect></_>
    <_>
      <rect>
        1 8 10 9</rect></_>
    <_>
      <rect>
        1 9 2 2</rect></_>
    <_>
      <rect>
        1 11 4 6</rect></_>
    <_>
      <rect>
        1 12 3 3</rect></_>
    <_>
      <rect>
        1 16 7 3</rect></_>
    <_>
      <rect>
        1 17 7 3</rect></_>
    <_>
      <rect>
        1 31 6 3</rect></_>
    <_>
      <rect>
        2 1 12 5</rect></_>
    <_>
      <rect>
        2 3 7 4</rect></_>
    <_>
      <rect>
        2 7 3 2</rect></_>
    <_>
      <rect>
        2 11 3 4</rect></_>
    <_>
      <rect>
        2 11 11 4</rect></_>
    <_>
      <rect>
        2 16 7 7</rect></_>
    <_>
      <rect>
        2 20 4 4</rect></_>
    <_>
      <rect>
        2 27 8 4</rect></_>
    <_>
      <rect>
        3 2 3 7</rect></_>
    <_>
      <rect>
        3 2 12 6</rect></_>
    <_>
      <rect>
        3 6 3 7</rect></_>
    <_>
      <rect>
        3 10 3 3</rect></_>
    <_>
      <rect>
        3 12 4 6</rect></_>
    <_>
      <rect>
        3 12 6 3</rect></_>
    <_>
      <rect>
        3 15 11 7</rect></_>
    <_>
      <rect>
        3 15 12 3</rect></_>
    <_>
      <rect>
        3 16 9 8</rect></_>
    <_>
      <rect>
        3 18 3 6</rect></_>
    <_>
      <rect>
        3 21 1 2</rect></_>
    <_>
      <rect>
        3 21 10 6</rect></_>
    <_>
      <rect>
        3 23 5 4</rect></_>
    <_>
      <rect>
        3 24 2 3</rect></_>
    <_>
      <rect>
        3 27 3 3</rect></_>
    <_>
      <rect>
        3 27 12 4</rect></_>
    <_>
      <rect>
        4 2 9 4</rect></_>
    <_>
      <rect>
        4 3 5 3</rect></_>
    <_>
      <rect>
        4 4 11 10</rect></_>
    <_>
      <rect>
        4 9 5 2</rect></_>
    <_>
      <rect>
        4 19 6 6</rect></_>
    <_>
      <rect>
        4 24 4 3</rect></_>
    <_>
      <rect>
        4 25 11 5</rect></_>
    <_>
      <rect>
        5 6 3 4</rect></_>
    <_>
      <rect>
        5 11 7 3</rect></_>
    <_>
      <rect>
        5 12 5 2</rect></_>
    <_>
      <rect>
        5 30 5 3</rect></_>
    <_>
      <rect>
        6 1 9 13</rect></_>
    <_>
      <rect>
        6 3 5 5</rect></_>
    <_>
      <rect>
        6 6 4 4</rect></_>
    <_>
      <rect>
        6 28 5 3</rect></_>
    <_>
      <rect>
        6 28 10 4</rect></_>
    <_>
      <rect>
        7 0 11 9</rect></_>
    <_>
      <rect>
        7 10 6 3</rect></_>
    <_>
      <rect>
        7 15 3 4</rect></_>
    <_>
      <rect>
        7 16 9 3</rect></_>
    <_>
      <rect>
        7 19 9 7</rect></_>
    <_>
      <rect>
        7 24 7 5</rect></_>
    <_>
      <rect>
        8 11 5 6</rect></_>
    <_>
      <rect>
        8 18 7 3</rect></_>
    <_>
      <rect>
        9 0 9 8</rect></_>
    <_>
      <rect>
        9 0 10 9</rect></_>
    <_>
      <rect>
        9 6 5 9</rect></_>
    <_>
      <rect>
        9 17 5 3</rect></_>
    <_>
      <rect>
        10 6 7 6</rect></_>
    <_>
      <rect>
        10 8 10 9</rect></_>
    <_>
      <rect>
        10 11 7 4</rect></_>
    <_>
      <rect>
        10 15 8 5</rect></_>
    <_>
      <rect>
        11 2 4 12</rect></_>
    <_>
      <rect>
        11 7 7 9</rect></_>
    <_>
      <rect>
        11 11 6 7</rect></_>
    <_>
      <rect>
        11 11 6 8</rect></_>
    <_>
      <rect>
        11 13 6 5</rect></_>
    <_>
      <rect>
        11 13 7 5</rect></_>
    <_>
      <rect>
        11 19 7 3</rect></_>
    <_>
      <rect>
        11 31 6 3</rect></_>
    <_>
      <rect>
        12 1 6 4</rect></_>
    <_>
      <rect>
        12 8 6 7</rect></_>
    <_>
      <rect>
        12 17 6 4</rect></_>
    <_>
      <rect>
        12 19 6 4</rect></_>
    <_>
      <rect>
        13 12 5 5</rect></_>
    <_>
      <rect>
        13 12 5 7</rect></_>
    <_>
      <rect>
        13 13 5 4</rect></_>
    <_>
      <rect>
        13 15 5 3</rect></_>
    <_>
      <rect>
        13 17 5 5</rect></_>
    <_>
      <rect>
        13 19 5 3</rect></_>
    <_>
      <rect>
        13 19 6 3</rect></_>
    <_>
      <rect>
        13 34 9 2</rect></_>
    <_>
      <rect>
        14 11 5 4</rect></_>
    <_>
      <rect>
        15 8 4 5</rect></_>
    <_>
      <rect>
        15 8 6 5</rect></_>
    <_>
      <rect>
        15 12 5 3</rect></_>
    <_>
      <rect>
        15 15 3 3</rect></_>
    <_>
      <rect>
        15 17 2 1</rect></_>
    <_>
      <rect>
        16 1 5 4</rect></_>
    <_>
      <rect>
        16 3 8 6</rect></_>
    <_>
      <rect>
        16 12 4 4</rect></_>
    <_>
      <rect>
        16 13 5 6</rect></_>
    <_>
      <rect>
        16 24 6 4</rect></_>
    <_>
      <rect>
        16 31 7 3</rect></_>
    <_>
      <rect>
        17 5 6 6</rect></_>
    <_>
      <rect>
        17 10 6 3</rect></_>
    <_>
      <rect>
        17 21 4 1</rect></_>
    <_>
      <rect>
        17 22 6 4</rect></_>
    <_>
      <rect>
        17 30 7 3</rect></_>
    <_>
      <rect>
        18 16 5 3</rect></_>
    <_>
      <rect>
        18 19 6 6</rect></_>
    <_>
      <rect>
        18 20 7 6</rect></_>
    <_>
      <rect>
        19 6 3 10</rect></_>
    <_>
      <rect>
        19 6 6 3</rect></_>
    <_>
      <rect>
        19 11 6 6</rect></_>
    <_>
      <rect>
        19 12 7 5</rect></_>
    <_>
      <rect>
        19 15 4 3</rect></_>
    <_>
      <rect>
        20 25 5 5</rect></_>
    <_>
      <rect>
        20 29 6 3</rect></_>
    <_>
      <rect>
        21 10 6 4</rect></_>
    <_>
      <rect>
        21 19 6 7</rect></_>
    <_>
      <rect>
        22 3 5 2</rect></_>
    <_>
      <rect>
        22 5 5 3</rect></_>
    <_>
      <rect>
        22 6 6 3</rect></_>
    <_>
      <rect>
        22 7 6 4</rect></_>
    <_>
      <rect>
        22 28 4 3</rect></_>
    <_>
      <rect>
        22 29 6 3</rect></_>
    <_>
      <rect>
        23 28 5 3</rect></_>
    <_>
      <rect>
        24 1 3 3</rect></_>
    <_>
      <rect>
        24 3 5 3</rect></_>
    <_>
      <rect>
        24 14 4 5</rect></_>
    <_>
      <rect>
        24 25 5 5</rect></_>
    <_>
      <rect>
        25 8 2 2</rect></_>
    <_>
      <rect>
        25 12 4 7</rect></_>
    <_>
      <rect>
        25 19 4 5</rect></_>
    <_>
      <rect>
        25 19 5 5</rect></_>
    <_>
      <rect>
        25 20 5 5</rect></_>
    <_>
      <rect>
        26 0 4 4</rect></_>
    <_>
      <rect>
        26 5 3 3</rect></_>
    <_>
      <rect>
        26 13 4 5</rect></_>
    <_>
      <rect>
        26 27 4 3</rect></_>
    <_>
      <rect>
        26 28 3 2</rect></_>
    <_>
      <rect>
        27 7 2 3</rect></_>
    <_>
      <rect>
        27 9 3 3</rect></_>
    <_>
      <rect>
        27 24 3 3</rect></_>
    <_>
      <rect>
        28 9 4 4</rect></_>
    <_>
      <rect>
        28 10 2 2</rect></_>
    <_>
      <rect>
        28 19 4 3</rect></_>
    <_>
      <rect>
        28 20 4 5</rect></_>
    <_>
      <rect>
        29 7 3 6</rect></_>
    <_>
      <rect>
        29 11 2 2</rect></_>
    <_>
      <rect>
        29 13 3 3</rect></_>
    <_>
      <rect>
        29 13 3 6</rect></_>
    <_>
      <rect>
        29 25 2 2</rect></_>
    <_>
      <rect>
        30 14 3 3</rect></_>
    <_>
      <rect>
        30 22 3 3</rect></_>
    <_>
      <rect>
        30 24 2 3</rect></_>
    <_>
      <rect>
        31 7 1 2</rect></_>
    <_>
      <rect>
        31 7 2 6</rect></_>
    <_>
      <rect>
        31 8 2 4</rect></_>
    <_>
      <rect>
        31 9 3 5</rect></_>
    <_>
      <rect>
        31 13 2 1</rect></_>
    <_>
      <rect>
        31 13 3 3</rect></_>
    <_>
      <rect>
        31 14 2 8</rect></_>
    <_>
      <rect>
        31 25 3 3</rect></_>
    <_>
      <rect>
        32 15 1 2</rect></_>
    <_>
      <rect>
        32 17 2 2</rect></_>
    <_>
      <rect>
        32 21 2 2</rect></_>
    <_>
      <rect>
        33 8 1 2</rect></_>
    <_>
      <rect>
        33 15 1 2</rect></_>
    <_>
      <rect>
        33 19 1 2</rect></_>
    <_>
      <rect>
        33 23 1 2</rect></_>
    <_>
      <rect>
        33 25 2 2</rect></_>
    <_>
      <rect>
        34 17 1 2</rect></_>
    <_>
      <rect>
        34 20 1 1</rect></_></features></cascade>
</opencv_storage>
